digraph Tree {
node [shape=box, style="filled, rounded", color="black", fontname="helvetica"] ;
edge [fontname="helvetica"] ;
0 [label=<x2 &le; 1.907<br/>entropy = 2.0<br/>samples = 1459<br/>value = [365, 364, 374, 356]<br/>class = 2>, fillcolor="#fdfeff"] ;
1 [label=<x2 &le; 1.834<br/>entropy = 1.999<br/>samples = 1421<br/>value = [361, 354, 366, 340]<br/>class = 2>, fillcolor="#feffff"] ;
0 -> 1 [labeldistance=2.5, labelangle=45, headlabel="True"] ;
2 [label=<x1 &le; 1.404<br/>entropy = 2.0<br/>samples = 1391<br/>value = [347, 351, 357, 336]<br/>class = 2>, fillcolor="#fefeff"] ;
1 -> 2 ;
3 [label=<x2 &le; -1.155<br/>entropy = 1.999<br/>samples = 1192<br/>value = [311, 305, 297, 279]<br/>class = 0>, fillcolor="#fffefe"] ;
2 -> 3 ;
4 [label=<x1 &le; -0.082<br/>entropy = 1.852<br/>samples = 263<br/>value = [84, 82, 77, 20]<br/>class = 0>, fillcolor="#fffefd"] ;
3 -> 4 ;
5 [label=<x1 &le; -1.095<br/>entropy = 0.998<br/>samples = 159<br/>value = [84, 75, 0, 0]<br/>class = 0>, fillcolor="#fcf2ea"] ;
4 -> 5 ;
6 [label=<entropy = 0.0<br/>samples = 78<br/>value = [78, 0, 0, 0]<br/>class = 0>, fillcolor="#e58139"] ;
5 -> 6 ;
7 [label=<x1 &le; -0.981<br/>entropy = 0.381<br/>samples = 81<br/>value = [6, 75, 0, 0]<br/>class = 1>, fillcolor="#56e749"] ;
5 -> 7 ;
8 [label=<x1 &le; -1.012<br/>entropy = 1.0<br/>samples = 12<br/>value = [6, 6, 0, 0]<br/>class = 0>, fillcolor="#ffffff"] ;
7 -> 8 ;
9 [label=<x1 &le; -1.069<br/>entropy = 0.918<br/>samples = 9<br/>value = [3, 6, 0, 0]<br/>class = 1>, fillcolor="#a3f29c"] ;
8 -> 9 ;
10 [label=<x1 &le; -1.083<br/>entropy = 1.0<br/>samples = 6<br/>value = [3, 3, 0, 0]<br/>class = 0>, fillcolor="#ffffff"] ;
9 -> 10 ;
11 [label=<x2 &le; -1.595<br/>entropy = 0.811<br/>samples = 4<br/>value = [1, 3, 0, 0]<br/>class = 1>, fillcolor="#84ee7b"] ;
10 -> 11 ;
12 [label=<entropy = 0.0<br/>samples = 2<br/>value = [0, 2, 0, 0]<br/>class = 1>, fillcolor="#47e539"] ;
11 -> 12 ;
13 [label=<x1 &le; -1.087<br/>entropy = 1.0<br/>samples = 2<br/>value = [1, 1, 0, 0]<br/>class = 0>, fillcolor="#ffffff"] ;
11 -> 13 ;
14 [label=<entropy = 0.0<br/>samples = 1<br/>value = [1, 0, 0, 0]<br/>class = 0>, fillcolor="#e58139"] ;
13 -> 14 ;
15 [label=<entropy = 0.0<br/>samples = 1<br/>value = [0, 1, 0, 0]<br/>class = 1>, fillcolor="#47e539"] ;
13 -> 15 ;
16 [label=<entropy = 0.0<br/>samples = 2<br/>value = [2, 0, 0, 0]<br/>class = 0>, fillcolor="#e58139"] ;
10 -> 16 ;
17 [label=<entropy = 0.0<br/>samples = 3<br/>value = [0, 3, 0, 0]<br/>class = 1>, fillcolor="#47e539"] ;
9 -> 17 ;
18 [label=<entropy = 0.0<br/>samples = 3<br/>value = [3, 0, 0, 0]<br/>class = 0>, fillcolor="#e58139"] ;
8 -> 18 ;
19 [label=<entropy = 0.0<br/>samples = 69<br/>value = [0, 69, 0, 0]<br/>class = 1>, fillcolor="#47e539"] ;
7 -> 19 ;
20 [label=<x1 &le; 0.981<br/>entropy = 1.041<br/>samples = 104<br/>value = [0, 7, 77, 20]<br/>class = 2>, fillcolor="#79bced"] ;
4 -> 20 ;
21 [label=<x1 &le; 0.204<br/>entropy = 0.583<br/>samples = 82<br/>value = [0, 7, 73, 2]<br/>class = 2>, fillcolor="#51a9e8"] ;
20 -> 21 ;
22 [label=<x2 &le; -1.778<br/>entropy = 0.855<br/>samples = 25<br/>value = [0, 7, 18, 0]<br/>class = 2>, fillcolor="#86c3ef"] ;
21 -> 22 ;
23 [label=<entropy = 0.0<br/>samples = 5<br/>value = [0, 0, 5, 0]<br/>class = 2>, fillcolor="#399de5"] ;
22 -> 23 ;
24 [label=<x2 &le; -1.696<br/>entropy = 0.934<br/>samples = 20<br/>value = [0, 7, 13, 0]<br/>class = 2>, fillcolor="#a4d2f3"] ;
22 -> 24 ;
25 [label=<entropy = 0.0<br/>samples = 2<br/>value = [0, 2, 0, 0]<br/>class = 1>, fillcolor="#47e539"] ;
24 -> 25 ;
26 [label=<x1 &le; 0.15<br/>entropy = 0.852<br/>samples = 18<br/>value = [0, 5, 13, 0]<br/>class = 2>, fillcolor="#85c3ef"] ;
24 -> 26 ;
27 [label=<x1 &le; 0.111<br/>entropy = 0.94<br/>samples = 14<br/>value = [0, 5, 9, 0]<br/>class = 2>, fillcolor="#a7d3f3"] ;
26 -> 27 ;
28 [label=<x1 &le; 0.025<br/>entropy = 0.811<br/>samples = 12<br/>value = [0, 3, 9, 0]<br/>class = 2>, fillcolor="#7bbeee"] ;
27 -> 28 ;
29 [label=<x2 &le; -1.306<br/>entropy = 1.0<br/>samples = 6<br/>value = [0, 3, 3, 0]<br/>class = 1>, fillcolor="#ffffff"] ;
28 -> 29 ;
30 [label=<x2 &le; -1.482<br/>entropy = 0.811<br/>samples = 4<br/>value = [0, 1, 3, 0]<br/>class = 2>, fillcolor="#7bbeee"] ;
29 -> 30 ;
31 [label=<entropy = 0.0<br/>samples = 1<br/>value = [0, 1, 0, 0]<br/>class = 1>, fillcolor="#47e539"] ;
30 -> 31 ;
32 [label=<entropy = 0.0<br/>samples = 3<br/>value = [0, 0, 3, 0]<br/>class = 2>, fillcolor="#399de5"] ;
30 -> 32 ;
33 [label=<entropy = 0.0<br/>samples = 2<br/>value = [0, 2, 0, 0]<br/>class = 1>, fillcolor="#47e539"] ;
29 -> 33 ;
34 [label=<entropy = 0.0<br/>samples = 6<br/>value = [0, 0, 6, 0]<br/>class = 2>, fillcolor="#399de5"] ;
28 -> 34 ;
35 [label=<entropy = 0.0<br/>samples = 2<br/>value = [0, 2, 0, 0]<br/>class = 1>, fillcolor="#47e539"] ;
27 -> 35 ;
36 [label=<entropy = 0.0<br/>samples = 4<br/>value = [0, 0, 4, 0]<br/>class = 2>, fillcolor="#399de5"] ;
26 -> 36 ;
37 [label=<x2 &le; -1.975<br/>entropy = 0.219<br/>samples = 57<br/>value = [0, 0, 55, 2]<br/>class = 2>, fillcolor="#40a1e6"] ;
21 -> 37 ;
38 [label=<x1 &le; 0.779<br/>entropy = 0.918<br/>samples = 6<br/>value = [0, 0, 4, 2]<br/>class = 2>, fillcolor="#9ccef2"] ;
37 -> 38 ;
39 [label=<entropy = 0.0<br/>samples = 3<br/>value = [0, 0, 3, 0]<br/>class = 2>, fillcolor="#399de5"] ;
38 -> 39 ;
40 [label=<x2 &le; -2.057<br/>entropy = 0.918<br/>samples = 3<br/>value = [0, 0, 1, 2]<br/>class = 3>, fillcolor="#eb9cf2"] ;
38 -> 40 ;
41 [label=<entropy = 0.0<br/>samples = 1<br/>value = [0, 0, 1, 0]<br/>class = 2>, fillcolor="#399de5"] ;
40 -> 41 ;
42 [label=<entropy = 0.0<br/>samples = 2<br/>value = [0, 0, 0, 2]<br/>class = 3>, fillcolor="#d739e5"] ;
40 -> 42 ;
43 [label=<entropy = 0.0<br/>samples = 51<br/>value = [0, 0, 51, 0]<br/>class = 2>, fillcolor="#399de5"] ;
37 -> 43 ;
44 [label=<x1 &le; 1.155<br/>entropy = 0.684<br/>samples = 22<br/>value = [0, 0, 4, 18]<br/>class = 3>, fillcolor="#e065eb"] ;
20 -> 44 ;
45 [label=<x1 &le; 1.131<br/>entropy = 0.991<br/>samples = 9<br/>value = [0, 0, 4, 5]<br/>class = 3>, fillcolor="#f7d7fa"] ;
44 -> 45 ;
46 [label=<x2 &le; -1.918<br/>entropy = 0.863<br/>samples = 7<br/>value = [0, 0, 2, 5]<br/>class = 3>, fillcolor="#e788ef"] ;
45 -> 46 ;
47 [label=<entropy = 0.0<br/>samples = 1<br/>value = [0, 0, 1, 0]<br/>class = 2>, fillcolor="#399de5"] ;
46 -> 47 ;
48 [label=<x1 &le; 1.036<br/>entropy = 0.65<br/>samples = 6<br/>value = [0, 0, 1, 5]<br/>class = 3>, fillcolor="#df61ea"] ;
46 -> 48 ;
49 [label=<x1 &le; 1.014<br/>entropy = 0.918<br/>samples = 3<br/>value = [0, 0, 1, 2]<br/>class = 3>, fillcolor="#eb9cf2"] ;
48 -> 49 ;
50 [label=<entropy = 0.0<br/>samples = 2<br/>value = [0, 0, 0, 2]<br/>class = 3>, fillcolor="#d739e5"] ;
49 -> 50 ;
51 [label=<entropy = 0.0<br/>samples = 1<br/>value = [0, 0, 1, 0]<br/>class = 2>, fillcolor="#399de5"] ;
49 -> 51 ;
52 [label=<entropy = 0.0<br/>samples = 3<br/>value = [0, 0, 0, 3]<br/>class = 3>, fillcolor="#d739e5"] ;
48 -> 52 ;
53 [label=<entropy = 0.0<br/>samples = 2<br/>value = [0, 0, 2, 0]<br/>class = 2>, fillcolor="#399de5"] ;
45 -> 53 ;
54 [label=<entropy = 0.0<br/>samples = 13<br/>value = [0, 0, 0, 13]<br/>class = 3>, fillcolor="#d739e5"] ;
44 -> 54 ;
55 [label=<x1 &le; 0.053<br/>entropy = 1.997<br/>samples = 929<br/>value = [227, 223, 220, 259]<br/>class = 3>, fillcolor="#fdf6fe"] ;
3 -> 55 ;
56 [label=<x2 &le; 0.0<br/>entropy = 1.947<br/>samples = 555<br/>value = [104, 99, 175, 177]<br/>class = 3>, fillcolor="#fffeff"] ;
55 -> 56 ;
57 [label=<x1 &le; -0.95<br/>entropy = 1.444<br/>samples = 205<br/>value = [97, 19, 3, 86]<br/>class = 0>, fillcolor="#fdf3ed"] ;
56 -> 57 ;
58 [label=<x2 &le; -0.878<br/>entropy = 0.806<br/>samples = 107<br/>value = [22, 0, 1, 84]<br/>class = 3>, fillcolor="#e26fec"] ;
57 -> 58 ;
59 [label=<x2 &le; -0.935<br/>entropy = 0.998<br/>samples = 36<br/>value = [17, 0, 0, 19]<br/>class = 3>, fillcolor="#fbeafc"] ;
58 -> 59 ;
60 [label=<x2 &le; -1.025<br/>entropy = 0.974<br/>samples = 32<br/>value = [13, 0, 0, 19]<br/>class = 3>, fillcolor="#f2c0f7"] ;
59 -> 60 ;
61 [label=<x2 &le; -1.046<br/>entropy = 0.89<br/>samples = 13<br/>value = [9, 0, 0, 4]<br/>class = 0>, fillcolor="#f1b991"] ;
60 -> 61 ;
62 [label=<x2 &le; -1.059<br/>entropy = 0.971<br/>samples = 10<br/>value = [6, 0, 0, 4]<br/>class = 0>, fillcolor="#f6d5bd"] ;
61 -> 62 ;
63 [label=<x2 &le; -1.108<br/>entropy = 0.811<br/>samples = 8<br/>value = [6, 0, 0, 2]<br/>class = 0>, fillcolor="#eeab7b"] ;
62 -> 63 ;
64 [label=<x1 &le; -1.455<br/>entropy = 1.0<br/>samples = 4<br/>value = [2, 0, 0, 2]<br/>class = 0>, fillcolor="#ffffff"] ;
63 -> 64 ;
65 [label=<entropy = 0.0<br/>samples = 1<br/>value = [0, 0, 0, 1]<br/>class = 3>, fillcolor="#d739e5"] ;
64 -> 65 ;
66 [label=<x2 &le; -1.135<br/>entropy = 0.918<br/>samples = 3<br/>value = [2, 0, 0, 1]<br/>class = 0>, fillcolor="#f2c09c"] ;
64 -> 66 ;
67 [label=<entropy = 0.0<br/>samples = 2<br/>value = [2, 0, 0, 0]<br/>class = 0>, fillcolor="#e58139"] ;
66 -> 67 ;
68 [label=<entropy = 0.0<br/>samples = 1<br/>value = [0, 0, 0, 1]<br/>class = 3>, fillcolor="#d739e5"] ;
66 -> 68 ;
69 [label=<entropy = 0.0<br/>samples = 4<br/>value = [4, 0, 0, 0]<br/>class = 0>, fillcolor="#e58139"] ;
63 -> 69 ;
70 [label=<entropy = 0.0<br/>samples = 2<br/>value = [0, 0, 0, 2]<br/>class = 3>, fillcolor="#d739e5"] ;
62 -> 70 ;
71 [label=<entropy = 0.0<br/>samples = 3<br/>value = [3, 0, 0, 0]<br/>class = 0>, fillcolor="#e58139"] ;
61 -> 71 ;
72 [label=<x1 &le; -1.567<br/>entropy = 0.742<br/>samples = 19<br/>value = [4, 0, 0, 15]<br/>class = 3>, fillcolor="#e26eec"] ;
60 -> 72 ;
73 [label=<entropy = 0.0<br/>samples = 8<br/>value = [0, 0, 0, 8]<br/>class = 3>, fillcolor="#d739e5"] ;
72 -> 73 ;
74 [label=<x2 &le; -0.997<br/>entropy = 0.946<br/>samples = 11<br/>value = [4, 0, 0, 7]<br/>class = 3>, fillcolor="#eeaaf4"] ;
72 -> 74 ;
75 [label=<entropy = 0.0<br/>samples = 4<br/>value = [0, 0, 0, 4]<br/>class = 3>, fillcolor="#d739e5"] ;
74 -> 75 ;
76 [label=<x2 &le; -0.972<br/>entropy = 0.985<br/>samples = 7<br/>value = [4, 0, 0, 3]<br/>class = 0>, fillcolor="#f8e0ce"] ;
74 -> 76 ;
77 [label=<entropy = 0.0<br/>samples = 3<br/>value = [3, 0, 0, 0]<br/>class = 0>, fillcolor="#e58139"] ;
76 -> 77 ;
78 [label=<x1 &le; -1.539<br/>entropy = 0.811<br/>samples = 4<br/>value = [1, 0, 0, 3]<br/>class = 3>, fillcolor="#e47bee"] ;
76 -> 78 ;
79 [label=<entropy = 0.0<br/>samples = 1<br/>value = [1, 0, 0, 0]<br/>class = 0>, fillcolor="#e58139"] ;
78 -> 79 ;
80 [label=<entropy = 0.0<br/>samples = 3<br/>value = [0, 0, 0, 3]<br/>class = 3>, fillcolor="#d739e5"] ;
78 -> 80 ;
81 [label=<entropy = 0.0<br/>samples = 4<br/>value = [4, 0, 0, 0]<br/>class = 0>, fillcolor="#e58139"] ;
59 -> 81 ;
82 [label=<x1 &le; -1.21<br/>entropy = 0.473<br/>samples = 71<br/>value = [5, 0, 1, 65]<br/>class = 3>, fillcolor="#db4be7"] ;
58 -> 82 ;
83 [label=<x2 &le; -0.129<br/>entropy = 0.127<br/>samples = 57<br/>value = [0, 0, 1, 56]<br/>class = 3>, fillcolor="#d83de5"] ;
82 -> 83 ;
84 [label=<entropy = 0.0<br/>samples = 51<br/>value = [0, 0, 0, 51]<br/>class = 3>, fillcolor="#d739e5"] ;
83 -> 84 ;
85 [label=<x2 &le; -0.097<br/>entropy = 0.65<br/>samples = 6<br/>value = [0, 0, 1, 5]<br/>class = 3>, fillcolor="#df61ea"] ;
83 -> 85 ;
86 [label=<entropy = 0.0<br/>samples = 1<br/>value = [0, 0, 1, 0]<br/>class = 2>, fillcolor="#399de5"] ;
85 -> 86 ;
87 [label=<entropy = 0.0<br/>samples = 5<br/>value = [0, 0, 0, 5]<br/>class = 3>, fillcolor="#d739e5"] ;
85 -> 87 ;
88 [label=<x1 &le; -1.177<br/>entropy = 0.94<br/>samples = 14<br/>value = [5, 0, 0, 9]<br/>class = 3>, fillcolor="#eda7f3"] ;
82 -> 88 ;
89 [label=<entropy = 0.0<br/>samples = 1<br/>value = [1, 0, 0, 0]<br/>class = 0>, fillcolor="#e58139"] ;
88 -> 89 ;
90 [label=<x2 &le; -0.481<br/>entropy = 0.89<br/>samples = 13<br/>value = [4, 0, 0, 9]<br/>class = 3>, fillcolor="#e991f1"] ;
88 -> 90 ;
91 [label=<x1 &le; -0.969<br/>entropy = 0.544<br/>samples = 8<br/>value = [1, 0, 0, 7]<br/>class = 3>, fillcolor="#dd55e9"] ;
90 -> 91 ;
92 [label=<entropy = 0.0<br/>samples = 6<br/>value = [0, 0, 0, 6]<br/>class = 3>, fillcolor="#d739e5"] ;
91 -> 92 ;
93 [label=<x2 &le; -0.658<br/>entropy = 1.0<br/>samples = 2<br/>value = [1, 0, 0, 1]<br/>class = 0>, fillcolor="#ffffff"] ;
91 -> 93 ;
94 [label=<entropy = 0.0<br/>samples = 1<br/>value = [1, 0, 0, 0]<br/>class = 0>, fillcolor="#e58139"] ;
93 -> 94 ;
95 [label=<entropy = 0.0<br/>samples = 1<br/>value = [0, 0, 0, 1]<br/>class = 3>, fillcolor="#d739e5"] ;
93 -> 95 ;
96 [label=<x1 &le; -1.036<br/>entropy = 0.971<br/>samples = 5<br/>value = [3, 0, 0, 2]<br/>class = 0>, fillcolor="#f6d5bd"] ;
90 -> 96 ;
97 [label=<entropy = 0.0<br/>samples = 2<br/>value = [2, 0, 0, 0]<br/>class = 0>, fillcolor="#e58139"] ;
96 -> 97 ;
98 [label=<x1 &le; -1.006<br/>entropy = 0.918<br/>samples = 3<br/>value = [1, 0, 0, 2]<br/>class = 3>, fillcolor="#eb9cf2"] ;
96 -> 98 ;
99 [label=<entropy = 0.0<br/>samples = 1<br/>value = [0, 0, 0, 1]<br/>class = 3>, fillcolor="#d739e5"] ;
98 -> 99 ;
100 [label=<x1 &le; -0.978<br/>entropy = 1.0<br/>samples = 2<br/>value = [1, 0, 0, 1]<br/>class = 0>, fillcolor="#ffffff"] ;
98 -> 100 ;
101 [label=<entropy = 0.0<br/>samples = 1<br/>value = [1, 0, 0, 0]<br/>class = 0>, fillcolor="#e58139"] ;
100 -> 101 ;
102 [label=<entropy = 0.0<br/>samples = 1<br/>value = [0, 0, 0, 1]<br/>class = 3>, fillcolor="#d739e5"] ;
100 -> 102 ;
103 [label=<x2 &le; -0.844<br/>entropy = 0.983<br/>samples = 98<br/>value = [75, 19, 2, 2]<br/>class = 0>, fillcolor="#eda673"] ;
57 -> 103 ;
104 [label=<x1 &le; -0.003<br/>entropy = 1.302<br/>samples = 23<br/>value = [8, 13, 2, 0]<br/>class = 1>, fillcolor="#c2f6bd"] ;
103 -> 104 ;
105 [label=<x2 &le; -1.115<br/>entropy = 0.959<br/>samples = 21<br/>value = [8, 13, 0, 0]<br/>class = 1>, fillcolor="#b8f5b3"] ;
104 -> 105 ;
106 [label=<entropy = 0.0<br/>samples = 5<br/>value = [0, 5, 0, 0]<br/>class = 1>, fillcolor="#47e539"] ;
105 -> 106 ;
107 [label=<x2 &le; -1.086<br/>entropy = 1.0<br/>samples = 16<br/>value = [8, 8, 0, 0]<br/>class = 0>, fillcolor="#ffffff"] ;
105 -> 107 ;
108 [label=<entropy = 0.0<br/>samples = 3<br/>value = [3, 0, 0, 0]<br/>class = 0>, fillcolor="#e58139"] ;
107 -> 108 ;
109 [label=<x1 &le; -0.446<br/>entropy = 0.961<br/>samples = 13<br/>value = [5, 8, 0, 0]<br/>class = 1>, fillcolor="#baf5b5"] ;
107 -> 109 ;
110 [label=<x2 &le; -1.068<br/>entropy = 0.65<br/>samples = 6<br/>value = [5, 1, 0, 0]<br/>class = 0>, fillcolor="#ea9a61"] ;
109 -> 110 ;
111 [label=<entropy = 0.0<br/>samples = 1<br/>value = [0, 1, 0, 0]<br/>class = 1>, fillcolor="#47e539"] ;
110 -> 111 ;
112 [label=<entropy = 0.0<br/>samples = 5<br/>value = [5, 0, 0, 0]<br/>class = 0>, fillcolor="#e58139"] ;
110 -> 112 ;
113 [label=<entropy = 0.0<br/>samples = 7<br/>value = [0, 7, 0, 0]<br/>class = 1>, fillcolor="#47e539"] ;
109 -> 113 ;
114 [label=<entropy = 0.0<br/>samples = 2<br/>value = [0, 0, 2, 0]<br/>class = 2>, fillcolor="#399de5"] ;
104 -> 114 ;
115 [label=<x1 &le; -0.16<br/>entropy = 0.576<br/>samples = 75<br/>value = [67, 6, 0, 2]<br/>class = 0>, fillcolor="#e89050"] ;
103 -> 115 ;
116 [label=<x2 &le; -0.085<br/>entropy = 0.122<br/>samples = 60<br/>value = [59, 0, 0, 1]<br/>class = 0>, fillcolor="#e5833c"] ;
115 -> 116 ;
117 [label=<entropy = 0.0<br/>samples = 57<br/>value = [57, 0, 0, 0]<br/>class = 0>, fillcolor="#e58139"] ;
116 -> 117 ;
118 [label=<x2 &le; -0.063<br/>entropy = 0.918<br/>samples = 3<br/>value = [2, 0, 0, 1]<br/>class = 0>, fillcolor="#f2c09c"] ;
116 -> 118 ;
119 [label=<entropy = 0.0<br/>samples = 1<br/>value = [0, 0, 0, 1]<br/>class = 3>, fillcolor="#d739e5"] ;
118 -> 119 ;
120 [label=<entropy = 0.0<br/>samples = 2<br/>value = [2, 0, 0, 0]<br/>class = 0>, fillcolor="#e58139"] ;
118 -> 120 ;
121 [label=<x2 &le; -0.029<br/>entropy = 1.273<br/>samples = 15<br/>value = [8, 6, 0, 1]<br/>class = 0>, fillcolor="#f9e3d3"] ;
115 -> 121 ;
122 [label=<x2 &le; -0.156<br/>entropy = 0.961<br/>samples = 13<br/>value = [8, 5, 0, 0]<br/>class = 0>, fillcolor="#f5d0b5"] ;
121 -> 122 ;
123 [label=<x1 &le; -0.081<br/>entropy = 1.0<br/>samples = 10<br/>value = [5, 5, 0, 0]<br/>class = 0>, fillcolor="#ffffff"] ;
122 -> 123 ;
124 [label=<x1 &le; -0.138<br/>entropy = 0.722<br/>samples = 5<br/>value = [4, 1, 0, 0]<br/>class = 0>, fillcolor="#eca06a"] ;
123 -> 124 ;
125 [label=<entropy = 0.0<br/>samples = 1<br/>value = [0, 1, 0, 0]<br/>class = 1>, fillcolor="#47e539"] ;
124 -> 125 ;
126 [label=<entropy = 0.0<br/>samples = 4<br/>value = [4, 0, 0, 0]<br/>class = 0>, fillcolor="#e58139"] ;
124 -> 126 ;
127 [label=<x1 &le; 0.04<br/>entropy = 0.722<br/>samples = 5<br/>value = [1, 4, 0, 0]<br/>class = 1>, fillcolor="#75ec6a"] ;
123 -> 127 ;
128 [label=<entropy = 0.0<br/>samples = 4<br/>value = [0, 4, 0, 0]<br/>class = 1>, fillcolor="#47e539"] ;
127 -> 128 ;
129 [label=<entropy = 0.0<br/>samples = 1<br/>value = [1, 0, 0, 0]<br/>class = 0>, fillcolor="#e58139"] ;
127 -> 129 ;
130 [label=<entropy = 0.0<br/>samples = 3<br/>value = [3, 0, 0, 0]<br/>class = 0>, fillcolor="#e58139"] ;
122 -> 130 ;
131 [label=<x1 &le; -0.027<br/>entropy = 1.0<br/>samples = 2<br/>value = [0, 1, 0, 1]<br/>class = 1>, fillcolor="#ffffff"] ;
121 -> 131 ;
132 [label=<entropy = 0.0<br/>samples = 1<br/>value = [0, 0, 0, 1]<br/>class = 3>, fillcolor="#d739e5"] ;
131 -> 132 ;
133 [label=<entropy = 0.0<br/>samples = 1<br/>value = [0, 1, 0, 0]<br/>class = 1>, fillcolor="#47e539"] ;
131 -> 133 ;
134 [label=<x1 &le; -0.946<br/>entropy = 1.609<br/>samples = 350<br/>value = [7, 80, 172, 91]<br/>class = 2>, fillcolor="#c1e0f7"] ;
56 -> 134 ;
135 [label=<x2 &le; 0.936<br/>entropy = 1.153<br/>samples = 178<br/>value = [0, 80, 93, 5]<br/>class = 2>, fillcolor="#e5f2fc"] ;
134 -> 135 ;
136 [label=<x1 &le; -1.109<br/>entropy = 0.323<br/>samples = 85<br/>value = [0, 0, 80, 5]<br/>class = 2>, fillcolor="#45a3e7"] ;
135 -> 136 ;
137 [label=<x2 &le; 0.061<br/>entropy = 0.174<br/>samples = 77<br/>value = [0, 0, 75, 2]<br/>class = 2>, fillcolor="#3ea0e6"] ;
136 -> 137 ;
138 [label=<x1 &le; -1.621<br/>entropy = 0.918<br/>samples = 6<br/>value = [0, 0, 4, 2]<br/>class = 2>, fillcolor="#9ccef2"] ;
137 -> 138 ;
139 [label=<entropy = 0.0<br/>samples = 2<br/>value = [0, 0, 0, 2]<br/>class = 3>, fillcolor="#d739e5"] ;
138 -> 139 ;
140 [label=<entropy = 0.0<br/>samples = 4<br/>value = [0, 0, 4, 0]<br/>class = 2>, fillcolor="#399de5"] ;
138 -> 140 ;
141 [label=<entropy = 0.0<br/>samples = 71<br/>value = [0, 0, 71, 0]<br/>class = 2>, fillcolor="#399de5"] ;
137 -> 141 ;
142 [label=<x1 &le; -1.075<br/>entropy = 0.954<br/>samples = 8<br/>value = [0, 0, 5, 3]<br/>class = 2>, fillcolor="#b0d8f5"] ;
136 -> 142 ;
143 [label=<entropy = 0.0<br/>samples = 2<br/>value = [0, 0, 0, 2]<br/>class = 3>, fillcolor="#d739e5"] ;
142 -> 143 ;
144 [label=<x2 &le; 0.72<br/>entropy = 0.65<br/>samples = 6<br/>value = [0, 0, 5, 1]<br/>class = 2>, fillcolor="#61b1ea"] ;
142 -> 144 ;
145 [label=<entropy = 0.0<br/>samples = 5<br/>value = [0, 0, 5, 0]<br/>class = 2>, fillcolor="#399de5"] ;
144 -> 145 ;
146 [label=<entropy = 0.0<br/>samples = 1<br/>value = [0, 0, 0, 1]<br/>class = 3>, fillcolor="#d739e5"] ;
144 -> 146 ;
147 [label=<x2 &le; 1.172<br/>entropy = 0.584<br/>samples = 93<br/>value = [0, 80, 13, 0]<br/>class = 1>, fillcolor="#65e959"] ;
135 -> 147 ;
148 [label=<x1 &le; -1.605<br/>entropy = 0.999<br/>samples = 23<br/>value = [0, 12, 11, 0]<br/>class = 1>, fillcolor="#f0fdef"] ;
147 -> 148 ;
149 [label=<x1 &le; -2.013<br/>entropy = 0.503<br/>samples = 9<br/>value = [0, 8, 1, 0]<br/>class = 1>, fillcolor="#5ee852"] ;
148 -> 149 ;
150 [label=<entropy = 0.0<br/>samples = 1<br/>value = [0, 0, 1, 0]<br/>class = 2>, fillcolor="#399de5"] ;
149 -> 150 ;
151 [label=<entropy = 0.0<br/>samples = 8<br/>value = [0, 8, 0, 0]<br/>class = 1>, fillcolor="#47e539"] ;
149 -> 151 ;
152 [label=<x2 &le; 0.947<br/>entropy = 0.863<br/>samples = 14<br/>value = [0, 4, 10, 0]<br/>class = 2>, fillcolor="#88c4ef"] ;
148 -> 152 ;
153 [label=<entropy = 0.0<br/>samples = 1<br/>value = [0, 1, 0, 0]<br/>class = 1>, fillcolor="#47e539"] ;
152 -> 153 ;
154 [label=<x2 &le; 1.035<br/>entropy = 0.779<br/>samples = 13<br/>value = [0, 3, 10, 0]<br/>class = 2>, fillcolor="#74baed"] ;
152 -> 154 ;
155 [label=<entropy = 0.0<br/>samples = 5<br/>value = [0, 0, 5, 0]<br/>class = 2>, fillcolor="#399de5"] ;
154 -> 155 ;
156 [label=<x1 &le; -1.088<br/>entropy = 0.954<br/>samples = 8<br/>value = [0, 3, 5, 0]<br/>class = 2>, fillcolor="#b0d8f5"] ;
154 -> 156 ;
157 [label=<x1 &le; -1.159<br/>entropy = 1.0<br/>samples = 6<br/>value = [0, 3, 3, 0]<br/>class = 1>, fillcolor="#ffffff"] ;
156 -> 157 ;
158 [label=<x2 &le; 1.133<br/>entropy = 0.811<br/>samples = 4<br/>value = [0, 1, 3, 0]<br/>class = 2>, fillcolor="#7bbeee"] ;
157 -> 158 ;
159 [label=<entropy = 0.0<br/>samples = 2<br/>value = [0, 0, 2, 0]<br/>class = 2>, fillcolor="#399de5"] ;
158 -> 159 ;
160 [label=<x1 &le; -1.493<br/>entropy = 1.0<br/>samples = 2<br/>value = [0, 1, 1, 0]<br/>class = 1>, fillcolor="#ffffff"] ;
158 -> 160 ;
161 [label=<entropy = 0.0<br/>samples = 1<br/>value = [0, 0, 1, 0]<br/>class = 2>, fillcolor="#399de5"] ;
160 -> 161 ;
162 [label=<entropy = 0.0<br/>samples = 1<br/>value = [0, 1, 0, 0]<br/>class = 1>, fillcolor="#47e539"] ;
160 -> 162 ;
163 [label=<entropy = 0.0<br/>samples = 2<br/>value = [0, 2, 0, 0]<br/>class = 1>, fillcolor="#47e539"] ;
157 -> 163 ;
164 [label=<entropy = 0.0<br/>samples = 2<br/>value = [0, 0, 2, 0]<br/>class = 2>, fillcolor="#399de5"] ;
156 -> 164 ;
165 [label=<x1 &le; -1.151<br/>entropy = 0.187<br/>samples = 70<br/>value = [0, 68, 2, 0]<br/>class = 1>, fillcolor="#4ce63f"] ;
147 -> 165 ;
166 [label=<entropy = 0.0<br/>samples = 52<br/>value = [0, 52, 0, 0]<br/>class = 1>, fillcolor="#47e539"] ;
165 -> 166 ;
167 [label=<x1 &le; -1.149<br/>entropy = 0.503<br/>samples = 18<br/>value = [0, 16, 2, 0]<br/>class = 1>, fillcolor="#5ee852"] ;
165 -> 167 ;
168 [label=<entropy = 0.0<br/>samples = 1<br/>value = [0, 0, 1, 0]<br/>class = 2>, fillcolor="#399de5"] ;
167 -> 168 ;
169 [label=<x2 &le; 1.706<br/>entropy = 0.323<br/>samples = 17<br/>value = [0, 16, 1, 0]<br/>class = 1>, fillcolor="#52e745"] ;
167 -> 169 ;
170 [label=<entropy = 0.0<br/>samples = 13<br/>value = [0, 13, 0, 0]<br/>class = 1>, fillcolor="#47e539"] ;
169 -> 170 ;
171 [label=<x2 &le; 1.761<br/>entropy = 0.811<br/>samples = 4<br/>value = [0, 3, 1, 0]<br/>class = 1>, fillcolor="#84ee7b"] ;
169 -> 171 ;
172 [label=<entropy = 0.0<br/>samples = 1<br/>value = [0, 0, 1, 0]<br/>class = 2>, fillcolor="#399de5"] ;
171 -> 172 ;
173 [label=<entropy = 0.0<br/>samples = 3<br/>value = [0, 3, 0, 0]<br/>class = 1>, fillcolor="#47e539"] ;
171 -> 173 ;
174 [label=<x2 &le; 1.015<br/>entropy = 1.204<br/>samples = 172<br/>value = [7, 0, 79, 86]<br/>class = 3>, fillcolor="#fcf0fd"] ;
134 -> 174 ;
175 [label=<x1 &le; -0.186<br/>entropy = 0.641<br/>samples = 92<br/>value = [7, 0, 4, 81]<br/>class = 3>, fillcolor="#dc53e8"] ;
174 -> 175 ;
176 [label=<x2 &le; 0.854<br/>entropy = 0.449<br/>samples = 81<br/>value = [2, 0, 4, 75]<br/>class = 3>, fillcolor="#da48e7"] ;
175 -> 176 ;
177 [label=<x2 &le; 0.11<br/>entropy = 0.206<br/>samples = 62<br/>value = [2, 0, 0, 60]<br/>class = 3>, fillcolor="#d840e6"] ;
176 -> 177 ;
178 [label=<x2 &le; 0.054<br/>entropy = 0.971<br/>samples = 5<br/>value = [2, 0, 0, 3]<br/>class = 3>, fillcolor="#f2bdf6"] ;
177 -> 178 ;
179 [label=<entropy = 0.0<br/>samples = 2<br/>value = [0, 0, 0, 2]<br/>class = 3>, fillcolor="#d739e5"] ;
178 -> 179 ;
180 [label=<x1 &le; -0.675<br/>entropy = 0.918<br/>samples = 3<br/>value = [2, 0, 0, 1]<br/>class = 0>, fillcolor="#f2c09c"] ;
178 -> 180 ;
181 [label=<entropy = 0.0<br/>samples = 2<br/>value = [2, 0, 0, 0]<br/>class = 0>, fillcolor="#e58139"] ;
180 -> 181 ;
182 [label=<entropy = 0.0<br/>samples = 1<br/>value = [0, 0, 0, 1]<br/>class = 3>, fillcolor="#d739e5"] ;
180 -> 182 ;
183 [label=<entropy = 0.0<br/>samples = 57<br/>value = [0, 0, 0, 57]<br/>class = 3>, fillcolor="#d739e5"] ;
177 -> 183 ;
184 [label=<x1 &le; -0.594<br/>entropy = 0.742<br/>samples = 19<br/>value = [0, 0, 4, 15]<br/>class = 3>, fillcolor="#e26eec"] ;
176 -> 184 ;
185 [label=<x1 &le; -0.836<br/>entropy = 0.991<br/>samples = 9<br/>value = [0, 0, 4, 5]<br/>class = 3>, fillcolor="#f7d7fa"] ;
184 -> 185 ;
186 [label=<entropy = 0.0<br/>samples = 3<br/>value = [0, 0, 0, 3]<br/>class = 3>, fillcolor="#d739e5"] ;
185 -> 186 ;
187 [label=<x1 &le; -0.791<br/>entropy = 0.918<br/>samples = 6<br/>value = [0, 0, 4, 2]<br/>class = 2>, fillcolor="#9ccef2"] ;
185 -> 187 ;
188 [label=<entropy = 0.0<br/>samples = 2<br/>value = [0, 0, 2, 0]<br/>class = 2>, fillcolor="#399de5"] ;
187 -> 188 ;
189 [label=<x1 &le; -0.753<br/>entropy = 1.0<br/>samples = 4<br/>value = [0, 0, 2, 2]<br/>class = 2>, fillcolor="#ffffff"] ;
187 -> 189 ;
190 [label=<entropy = 0.0<br/>samples = 1<br/>value = [0, 0, 0, 1]<br/>class = 3>, fillcolor="#d739e5"] ;
189 -> 190 ;
191 [label=<x1 &le; -0.707<br/>entropy = 0.918<br/>samples = 3<br/>value = [0, 0, 2, 1]<br/>class = 2>, fillcolor="#9ccef2"] ;
189 -> 191 ;
192 [label=<entropy = 0.0<br/>samples = 1<br/>value = [0, 0, 1, 0]<br/>class = 2>, fillcolor="#399de5"] ;
191 -> 192 ;
193 [label=<x2 &le; 0.921<br/>entropy = 1.0<br/>samples = 2<br/>value = [0, 0, 1, 1]<br/>class = 2>, fillcolor="#ffffff"] ;
191 -> 193 ;
194 [label=<entropy = 0.0<br/>samples = 1<br/>value = [0, 0, 1, 0]<br/>class = 2>, fillcolor="#399de5"] ;
193 -> 194 ;
195 [label=<entropy = 0.0<br/>samples = 1<br/>value = [0, 0, 0, 1]<br/>class = 3>, fillcolor="#d739e5"] ;
193 -> 195 ;
196 [label=<entropy = 0.0<br/>samples = 10<br/>value = [0, 0, 0, 10]<br/>class = 3>, fillcolor="#d739e5"] ;
184 -> 196 ;
197 [label=<x2 &le; 0.758<br/>entropy = 0.994<br/>samples = 11<br/>value = [5, 0, 0, 6]<br/>class = 3>, fillcolor="#f8defb"] ;
175 -> 197 ;
198 [label=<x1 &le; 0.034<br/>entropy = 0.991<br/>samples = 9<br/>value = [5, 0, 0, 4]<br/>class = 0>, fillcolor="#fae6d7"] ;
197 -> 198 ;
199 [label=<x2 &le; 0.578<br/>entropy = 0.985<br/>samples = 7<br/>value = [3, 0, 0, 4]<br/>class = 3>, fillcolor="#f5cef8"] ;
198 -> 199 ;
200 [label=<x2 &le; 0.321<br/>entropy = 0.918<br/>samples = 6<br/>value = [2, 0, 0, 4]<br/>class = 3>, fillcolor="#eb9cf2"] ;
199 -> 200 ;
201 [label=<x2 &le; 0.044<br/>entropy = 0.918<br/>samples = 3<br/>value = [2, 0, 0, 1]<br/>class = 0>, fillcolor="#f2c09c"] ;
200 -> 201 ;
202 [label=<entropy = 0.0<br/>samples = 1<br/>value = [0, 0, 0, 1]<br/>class = 3>, fillcolor="#d739e5"] ;
201 -> 202 ;
203 [label=<entropy = 0.0<br/>samples = 2<br/>value = [2, 0, 0, 0]<br/>class = 0>, fillcolor="#e58139"] ;
201 -> 203 ;
204 [label=<entropy = 0.0<br/>samples = 3<br/>value = [0, 0, 0, 3]<br/>class = 3>, fillcolor="#d739e5"] ;
200 -> 204 ;
205 [label=<entropy = 0.0<br/>samples = 1<br/>value = [1, 0, 0, 0]<br/>class = 0>, fillcolor="#e58139"] ;
199 -> 205 ;
206 [label=<entropy = 0.0<br/>samples = 2<br/>value = [2, 0, 0, 0]<br/>class = 0>, fillcolor="#e58139"] ;
198 -> 206 ;
207 [label=<entropy = 0.0<br/>samples = 2<br/>value = [0, 0, 0, 2]<br/>class = 3>, fillcolor="#d739e5"] ;
197 -> 207 ;
208 [label=<x1 &le; -0.028<br/>entropy = 0.337<br/>samples = 80<br/>value = [0, 0, 75, 5]<br/>class = 2>, fillcolor="#46a4e7"] ;
174 -> 208 ;
209 [label=<x2 &le; 1.079<br/>entropy = 0.106<br/>samples = 72<br/>value = [0, 0, 71, 1]<br/>class = 2>, fillcolor="#3c9ee5"] ;
208 -> 209 ;
210 [label=<x2 &le; 1.055<br/>entropy = 0.811<br/>samples = 4<br/>value = [0, 0, 3, 1]<br/>class = 2>, fillcolor="#7bbeee"] ;
209 -> 210 ;
211 [label=<entropy = 0.0<br/>samples = 3<br/>value = [0, 0, 3, 0]<br/>class = 2>, fillcolor="#399de5"] ;
210 -> 211 ;
212 [label=<entropy = 0.0<br/>samples = 1<br/>value = [0, 0, 0, 1]<br/>class = 3>, fillcolor="#d739e5"] ;
210 -> 212 ;
213 [label=<entropy = 0.0<br/>samples = 68<br/>value = [0, 0, 68, 0]<br/>class = 2>, fillcolor="#399de5"] ;
209 -> 213 ;
214 [label=<x2 &le; 1.618<br/>entropy = 1.0<br/>samples = 8<br/>value = [0, 0, 4, 4]<br/>class = 2>, fillcolor="#ffffff"] ;
208 -> 214 ;
215 [label=<x1 &le; 0.009<br/>entropy = 0.918<br/>samples = 6<br/>value = [0, 0, 2, 4]<br/>class = 3>, fillcolor="#eb9cf2"] ;
214 -> 215 ;
216 [label=<entropy = 0.0<br/>samples = 2<br/>value = [0, 0, 0, 2]<br/>class = 3>, fillcolor="#d739e5"] ;
215 -> 216 ;
217 [label=<x2 &le; 1.39<br/>entropy = 1.0<br/>samples = 4<br/>value = [0, 0, 2, 2]<br/>class = 2>, fillcolor="#ffffff"] ;
215 -> 217 ;
218 [label=<entropy = 0.0<br/>samples = 1<br/>value = [0, 0, 1, 0]<br/>class = 2>, fillcolor="#399de5"] ;
217 -> 218 ;
219 [label=<x1 &le; 0.015<br/>entropy = 0.918<br/>samples = 3<br/>value = [0, 0, 1, 2]<br/>class = 3>, fillcolor="#eb9cf2"] ;
217 -> 219 ;
220 [label=<entropy = 0.0<br/>samples = 1<br/>value = [0, 0, 1, 0]<br/>class = 2>, fillcolor="#399de5"] ;
219 -> 220 ;
221 [label=<entropy = 0.0<br/>samples = 2<br/>value = [0, 0, 0, 2]<br/>class = 3>, fillcolor="#d739e5"] ;
219 -> 221 ;
222 [label=<entropy = 0.0<br/>samples = 2<br/>value = [0, 0, 2, 0]<br/>class = 2>, fillcolor="#399de5"] ;
214 -> 222 ;
223 [label=<x2 &le; 0.025<br/>entropy = 1.903<br/>samples = 374<br/>value = [123, 124, 45, 82]<br/>class = 1>, fillcolor="#fefffe"] ;
55 -> 223 ;
224 [label=<x1 &le; 1.035<br/>entropy = 1.353<br/>samples = 142<br/>value = [5, 85, 45, 7]<br/>class = 1>, fillcolor="#b3f4ad"] ;
223 -> 224 ;
225 [label=<x2 &le; -0.959<br/>entropy = 0.943<br/>samples = 103<br/>value = [5, 82, 15, 1]<br/>class = 1>, fillcolor="#73eb68"] ;
224 -> 225 ;
226 [label=<x1 &le; 0.916<br/>entropy = 1.236<br/>samples = 19<br/>value = [0, 8, 10, 1]<br/>class = 2>, fillcolor="#dbedfa"] ;
225 -> 226 ;
227 [label=<x2 &le; -1.049<br/>entropy = 0.977<br/>samples = 17<br/>value = [0, 7, 10, 0]<br/>class = 2>, fillcolor="#c4e2f7"] ;
226 -> 227 ;
228 [label=<x1 &le; 0.373<br/>entropy = 0.544<br/>samples = 8<br/>value = [0, 1, 7, 0]<br/>class = 2>, fillcolor="#55abe9"] ;
227 -> 228 ;
229 [label=<x2 &le; -1.086<br/>entropy = 0.918<br/>samples = 3<br/>value = [0, 1, 2, 0]<br/>class = 2>, fillcolor="#9ccef2"] ;
228 -> 229 ;
230 [label=<entropy = 0.0<br/>samples = 1<br/>value = [0, 1, 0, 0]<br/>class = 1>, fillcolor="#47e539"] ;
229 -> 230 ;
231 [label=<entropy = 0.0<br/>samples = 2<br/>value = [0, 0, 2, 0]<br/>class = 2>, fillcolor="#399de5"] ;
229 -> 231 ;
232 [label=<entropy = 0.0<br/>samples = 5<br/>value = [0, 0, 5, 0]<br/>class = 2>, fillcolor="#399de5"] ;
228 -> 232 ;
233 [label=<x2 &le; -0.967<br/>entropy = 0.918<br/>samples = 9<br/>value = [0, 6, 3, 0]<br/>class = 1>, fillcolor="#a3f29c"] ;
227 -> 233 ;
234 [label=<x1 &le; 0.471<br/>entropy = 0.811<br/>samples = 8<br/>value = [0, 6, 2, 0]<br/>class = 1>, fillcolor="#84ee7b"] ;
233 -> 234 ;
235 [label=<entropy = 0.0<br/>samples = 3<br/>value = [0, 3, 0, 0]<br/>class = 1>, fillcolor="#47e539"] ;
234 -> 235 ;
236 [label=<x1 &le; 0.608<br/>entropy = 0.971<br/>samples = 5<br/>value = [0, 3, 2, 0]<br/>class = 1>, fillcolor="#c2f6bd"] ;
234 -> 236 ;
237 [label=<x2 &le; -1.028<br/>entropy = 0.918<br/>samples = 3<br/>value = [0, 1, 2, 0]<br/>class = 2>, fillcolor="#9ccef2"] ;
236 -> 237 ;
238 [label=<entropy = 0.0<br/>samples = 1<br/>value = [0, 0, 1, 0]<br/>class = 2>, fillcolor="#399de5"] ;
237 -> 238 ;
239 [label=<x2 &le; -1.012<br/>entropy = 1.0<br/>samples = 2<br/>value = [0, 1, 1, 0]<br/>class = 1>, fillcolor="#ffffff"] ;
237 -> 239 ;
240 [label=<entropy = 0.0<br/>samples = 1<br/>value = [0, 1, 0, 0]<br/>class = 1>, fillcolor="#47e539"] ;
239 -> 240 ;
241 [label=<entropy = 0.0<br/>samples = 1<br/>value = [0, 0, 1, 0]<br/>class = 2>, fillcolor="#399de5"] ;
239 -> 241 ;
242 [label=<entropy = 0.0<br/>samples = 2<br/>value = [0, 2, 0, 0]<br/>class = 1>, fillcolor="#47e539"] ;
236 -> 242 ;
243 [label=<entropy = 0.0<br/>samples = 1<br/>value = [0, 0, 1, 0]<br/>class = 2>, fillcolor="#399de5"] ;
233 -> 243 ;
244 [label=<x2 &le; -1.068<br/>entropy = 1.0<br/>samples = 2<br/>value = [0, 1, 0, 1]<br/>class = 1>, fillcolor="#ffffff"] ;
226 -> 244 ;
245 [label=<entropy = 0.0<br/>samples = 1<br/>value = [0, 1, 0, 0]<br/>class = 1>, fillcolor="#47e539"] ;
244 -> 245 ;
246 [label=<entropy = 0.0<br/>samples = 1<br/>value = [0, 0, 0, 1]<br/>class = 3>, fillcolor="#d739e5"] ;
244 -> 246 ;
247 [label=<x1 &le; 0.922<br/>entropy = 0.646<br/>samples = 84<br/>value = [5, 74, 5, 0]<br/>class = 1>, fillcolor="#5ee852"] ;
225 -> 247 ;
248 [label=<x2 &le; -0.387<br/>entropy = 0.383<br/>samples = 67<br/>value = [5, 62, 0, 0]<br/>class = 1>, fillcolor="#56e749"] ;
247 -> 248 ;
249 [label=<entropy = 0.0<br/>samples = 37<br/>value = [0, 37, 0, 0]<br/>class = 1>, fillcolor="#47e539"] ;
248 -> 249 ;
250 [label=<x1 &le; 0.066<br/>entropy = 0.65<br/>samples = 30<br/>value = [5, 25, 0, 0]<br/>class = 1>, fillcolor="#6cea61"] ;
248 -> 250 ;
251 [label=<entropy = 0.0<br/>samples = 1<br/>value = [1, 0, 0, 0]<br/>class = 0>, fillcolor="#e58139"] ;
250 -> 251 ;
252 [label=<x2 &le; -0.118<br/>entropy = 0.579<br/>samples = 29<br/>value = [4, 25, 0, 0]<br/>class = 1>, fillcolor="#64e959"] ;
250 -> 252 ;
253 [label=<x2 &le; -0.383<br/>entropy = 0.276<br/>samples = 21<br/>value = [1, 20, 0, 0]<br/>class = 1>, fillcolor="#50e643"] ;
252 -> 253 ;
254 [label=<entropy = 0.0<br/>samples = 1<br/>value = [1, 0, 0, 0]<br/>class = 0>, fillcolor="#e58139"] ;
253 -> 254 ;
255 [label=<entropy = 0.0<br/>samples = 20<br/>value = [0, 20, 0, 0]<br/>class = 1>, fillcolor="#47e539"] ;
253 -> 255 ;
256 [label=<x1 &le; 0.397<br/>entropy = 0.954<br/>samples = 8<br/>value = [3, 5, 0, 0]<br/>class = 1>, fillcolor="#b5f5b0"] ;
252 -> 256 ;
257 [label=<entropy = 0.0<br/>samples = 3<br/>value = [0, 3, 0, 0]<br/>class = 1>, fillcolor="#47e539"] ;
256 -> 257 ;
258 [label=<x2 &le; -0.008<br/>entropy = 0.971<br/>samples = 5<br/>value = [3, 2, 0, 0]<br/>class = 0>, fillcolor="#f6d5bd"] ;
256 -> 258 ;
259 [label=<x2 &le; -0.06<br/>entropy = 0.811<br/>samples = 4<br/>value = [3, 1, 0, 0]<br/>class = 0>, fillcolor="#eeab7b"] ;
258 -> 259 ;
260 [label=<x2 &le; -0.105<br/>entropy = 1.0<br/>samples = 2<br/>value = [1, 1, 0, 0]<br/>class = 0>, fillcolor="#ffffff"] ;
259 -> 260 ;
261 [label=<entropy = 0.0<br/>samples = 1<br/>value = [1, 0, 0, 0]<br/>class = 0>, fillcolor="#e58139"] ;
260 -> 261 ;
262 [label=<entropy = 0.0<br/>samples = 1<br/>value = [0, 1, 0, 0]<br/>class = 1>, fillcolor="#47e539"] ;
260 -> 262 ;
263 [label=<entropy = 0.0<br/>samples = 2<br/>value = [2, 0, 0, 0]<br/>class = 0>, fillcolor="#e58139"] ;
259 -> 263 ;
264 [label=<entropy = 0.0<br/>samples = 1<br/>value = [0, 1, 0, 0]<br/>class = 1>, fillcolor="#47e539"] ;
258 -> 264 ;
265 [label=<x1 &le; 0.936<br/>entropy = 0.874<br/>samples = 17<br/>value = [0, 12, 5, 0]<br/>class = 1>, fillcolor="#94f08b"] ;
247 -> 265 ;
266 [label=<entropy = 0.0<br/>samples = 2<br/>value = [0, 0, 2, 0]<br/>class = 2>, fillcolor="#399de5"] ;
265 -> 266 ;
267 [label=<x1 &le; 0.991<br/>entropy = 0.722<br/>samples = 15<br/>value = [0, 12, 3, 0]<br/>class = 1>, fillcolor="#75ec6a"] ;
265 -> 267 ;
268 [label=<entropy = 0.0<br/>samples = 8<br/>value = [0, 8, 0, 0]<br/>class = 1>, fillcolor="#47e539"] ;
267 -> 268 ;
269 [label=<x1 &le; 1.023<br/>entropy = 0.985<br/>samples = 7<br/>value = [0, 4, 3, 0]<br/>class = 1>, fillcolor="#d1f8ce"] ;
267 -> 269 ;
270 [label=<x2 &le; -0.632<br/>entropy = 0.811<br/>samples = 4<br/>value = [0, 1, 3, 0]<br/>class = 2>, fillcolor="#7bbeee"] ;
269 -> 270 ;
271 [label=<entropy = 0.0<br/>samples = 2<br/>value = [0, 0, 2, 0]<br/>class = 2>, fillcolor="#399de5"] ;
270 -> 271 ;
272 [label=<x2 &le; -0.463<br/>entropy = 1.0<br/>samples = 2<br/>value = [0, 1, 1, 0]<br/>class = 1>, fillcolor="#ffffff"] ;
270 -> 272 ;
273 [label=<entropy = 0.0<br/>samples = 1<br/>value = [0, 1, 0, 0]<br/>class = 1>, fillcolor="#47e539"] ;
272 -> 273 ;
274 [label=<entropy = 0.0<br/>samples = 1<br/>value = [0, 0, 1, 0]<br/>class = 2>, fillcolor="#399de5"] ;
272 -> 274 ;
275 [label=<entropy = 0.0<br/>samples = 3<br/>value = [0, 3, 0, 0]<br/>class = 1>, fillcolor="#47e539"] ;
269 -> 275 ;
276 [label=<x2 &le; -0.984<br/>entropy = 0.991<br/>samples = 39<br/>value = [0, 3, 30, 6]<br/>class = 2>, fillcolor="#6fb8ec"] ;
224 -> 276 ;
277 [label=<x1 &le; 1.067<br/>entropy = 0.592<br/>samples = 7<br/>value = [0, 0, 1, 6]<br/>class = 3>, fillcolor="#de5ae9"] ;
276 -> 277 ;
278 [label=<entropy = 0.0<br/>samples = 1<br/>value = [0, 0, 1, 0]<br/>class = 2>, fillcolor="#399de5"] ;
277 -> 278 ;
279 [label=<entropy = 0.0<br/>samples = 6<br/>value = [0, 0, 0, 6]<br/>class = 3>, fillcolor="#d739e5"] ;
277 -> 279 ;
280 [label=<x2 &le; -0.448<br/>entropy = 0.449<br/>samples = 32<br/>value = [0, 3, 29, 0]<br/>class = 2>, fillcolor="#4da7e8"] ;
276 -> 280 ;
281 [label=<entropy = 0.0<br/>samples = 19<br/>value = [0, 0, 19, 0]<br/>class = 2>, fillcolor="#399de5"] ;
280 -> 281 ;
282 [label=<x2 &le; -0.414<br/>entropy = 0.779<br/>samples = 13<br/>value = [0, 3, 10, 0]<br/>class = 2>, fillcolor="#74baed"] ;
280 -> 282 ;
283 [label=<entropy = 0.0<br/>samples = 1<br/>value = [0, 1, 0, 0]<br/>class = 1>, fillcolor="#47e539"] ;
282 -> 283 ;
284 [label=<x2 &le; -0.356<br/>entropy = 0.65<br/>samples = 12<br/>value = [0, 2, 10, 0]<br/>class = 2>, fillcolor="#61b1ea"] ;
282 -> 284 ;
285 [label=<entropy = 0.0<br/>samples = 4<br/>value = [0, 0, 4, 0]<br/>class = 2>, fillcolor="#399de5"] ;
284 -> 285 ;
286 [label=<x2 &le; -0.34<br/>entropy = 0.811<br/>samples = 8<br/>value = [0, 2, 6, 0]<br/>class = 2>, fillcolor="#7bbeee"] ;
284 -> 286 ;
287 [label=<entropy = 0.0<br/>samples = 1<br/>value = [0, 1, 0, 0]<br/>class = 1>, fillcolor="#47e539"] ;
286 -> 287 ;
288 [label=<x2 &le; -0.047<br/>entropy = 0.592<br/>samples = 7<br/>value = [0, 1, 6, 0]<br/>class = 2>, fillcolor="#5aade9"] ;
286 -> 288 ;
289 [label=<entropy = 0.0<br/>samples = 5<br/>value = [0, 0, 5, 0]<br/>class = 2>, fillcolor="#399de5"] ;
288 -> 289 ;
290 [label=<x1 &le; 1.207<br/>entropy = 1.0<br/>samples = 2<br/>value = [0, 1, 1, 0]<br/>class = 1>, fillcolor="#ffffff"] ;
288 -> 290 ;
291 [label=<entropy = 0.0<br/>samples = 1<br/>value = [0, 0, 1, 0]<br/>class = 2>, fillcolor="#399de5"] ;
290 -> 291 ;
292 [label=<entropy = 0.0<br/>samples = 1<br/>value = [0, 1, 0, 0]<br/>class = 1>, fillcolor="#47e539"] ;
290 -> 292 ;
293 [label=<x2 &le; 0.902<br/>entropy = 1.455<br/>samples = 232<br/>value = [118, 39, 0, 75]<br/>class = 0>, fillcolor="#f8dcc9"] ;
223 -> 293 ;
294 [label=<x1 &le; 0.87<br/>entropy = 1.051<br/>samples = 114<br/>value = [76, 35, 0, 3]<br/>class = 0>, fillcolor="#f2be98"] ;
293 -> 294 ;
295 [label=<x1 &le; 0.162<br/>entropy = 0.358<br/>samples = 71<br/>value = [67, 1, 0, 3]<br/>class = 0>, fillcolor="#e78845"] ;
294 -> 295 ;
296 [label=<x1 &le; 0.16<br/>entropy = 0.845<br/>samples = 11<br/>value = [8, 0, 0, 3]<br/>class = 0>, fillcolor="#efb083"] ;
295 -> 296 ;
297 [label=<x1 &le; 0.104<br/>entropy = 0.722<br/>samples = 10<br/>value = [8, 0, 0, 2]<br/>class = 0>, fillcolor="#eca06a"] ;
296 -> 297 ;
298 [label=<x2 &le; 0.604<br/>entropy = 0.971<br/>samples = 5<br/>value = [3, 0, 0, 2]<br/>class = 0>, fillcolor="#f6d5bd"] ;
297 -> 298 ;
299 [label=<x1 &le; 0.063<br/>entropy = 0.918<br/>samples = 3<br/>value = [1, 0, 0, 2]<br/>class = 3>, fillcolor="#eb9cf2"] ;
298 -> 299 ;
300 [label=<entropy = 0.0<br/>samples = 1<br/>value = [1, 0, 0, 0]<br/>class = 0>, fillcolor="#e58139"] ;
299 -> 300 ;
301 [label=<entropy = 0.0<br/>samples = 2<br/>value = [0, 0, 0, 2]<br/>class = 3>, fillcolor="#d739e5"] ;
299 -> 301 ;
302 [label=<entropy = 0.0<br/>samples = 2<br/>value = [2, 0, 0, 0]<br/>class = 0>, fillcolor="#e58139"] ;
298 -> 302 ;
303 [label=<entropy = 0.0<br/>samples = 5<br/>value = [5, 0, 0, 0]<br/>class = 0>, fillcolor="#e58139"] ;
297 -> 303 ;
304 [label=<entropy = 0.0<br/>samples = 1<br/>value = [0, 0, 0, 1]<br/>class = 3>, fillcolor="#d739e5"] ;
296 -> 304 ;
305 [label=<x1 &le; 0.793<br/>entropy = 0.122<br/>samples = 60<br/>value = [59, 1, 0, 0]<br/>class = 0>, fillcolor="#e5833c"] ;
295 -> 305 ;
306 [label=<entropy = 0.0<br/>samples = 53<br/>value = [53, 0, 0, 0]<br/>class = 0>, fillcolor="#e58139"] ;
305 -> 306 ;
307 [label=<x1 &le; 0.804<br/>entropy = 0.592<br/>samples = 7<br/>value = [6, 1, 0, 0]<br/>class = 0>, fillcolor="#e9965a"] ;
305 -> 307 ;
308 [label=<entropy = 0.0<br/>samples = 1<br/>value = [0, 1, 0, 0]<br/>class = 1>, fillcolor="#47e539"] ;
307 -> 308 ;
309 [label=<entropy = 0.0<br/>samples = 6<br/>value = [6, 0, 0, 0]<br/>class = 0>, fillcolor="#e58139"] ;
307 -> 309 ;
310 [label=<x1 &le; 1.19<br/>entropy = 0.74<br/>samples = 43<br/>value = [9, 34, 0, 0]<br/>class = 1>, fillcolor="#78ec6d"] ;
294 -> 310 ;
311 [label=<x1 &le; 1.05<br/>entropy = 0.943<br/>samples = 25<br/>value = [9, 16, 0, 0]<br/>class = 1>, fillcolor="#aef4a8"] ;
310 -> 311 ;
312 [label=<x1 &le; 0.883<br/>entropy = 0.971<br/>samples = 10<br/>value = [6, 4, 0, 0]<br/>class = 0>, fillcolor="#f6d5bd"] ;
311 -> 312 ;
313 [label=<entropy = 0.0<br/>samples = 1<br/>value = [0, 1, 0, 0]<br/>class = 1>, fillcolor="#47e539"] ;
312 -> 313 ;
314 [label=<x2 &le; 0.678<br/>entropy = 0.918<br/>samples = 9<br/>value = [6, 3, 0, 0]<br/>class = 0>, fillcolor="#f2c09c"] ;
312 -> 314 ;
315 [label=<x2 &le; 0.216<br/>entropy = 0.65<br/>samples = 6<br/>value = [5, 1, 0, 0]<br/>class = 0>, fillcolor="#ea9a61"] ;
314 -> 315 ;
316 [label=<x2 &le; 0.195<br/>entropy = 1.0<br/>samples = 2<br/>value = [1, 1, 0, 0]<br/>class = 0>, fillcolor="#ffffff"] ;
315 -> 316 ;
317 [label=<entropy = 0.0<br/>samples = 1<br/>value = [1, 0, 0, 0]<br/>class = 0>, fillcolor="#e58139"] ;
316 -> 317 ;
318 [label=<entropy = 0.0<br/>samples = 1<br/>value = [0, 1, 0, 0]<br/>class = 1>, fillcolor="#47e539"] ;
316 -> 318 ;
319 [label=<entropy = 0.0<br/>samples = 4<br/>value = [4, 0, 0, 0]<br/>class = 0>, fillcolor="#e58139"] ;
315 -> 319 ;
320 [label=<x2 &le; 0.855<br/>entropy = 0.918<br/>samples = 3<br/>value = [1, 2, 0, 0]<br/>class = 1>, fillcolor="#a3f29c"] ;
314 -> 320 ;
321 [label=<entropy = 0.0<br/>samples = 2<br/>value = [0, 2, 0, 0]<br/>class = 1>, fillcolor="#47e539"] ;
320 -> 321 ;
322 [label=<entropy = 0.0<br/>samples = 1<br/>value = [1, 0, 0, 0]<br/>class = 0>, fillcolor="#e58139"] ;
320 -> 322 ;
323 [label=<x2 &le; 0.182<br/>entropy = 0.722<br/>samples = 15<br/>value = [3, 12, 0, 0]<br/>class = 1>, fillcolor="#75ec6a"] ;
311 -> 323 ;
324 [label=<x2 &le; 0.045<br/>entropy = 1.0<br/>samples = 6<br/>value = [3, 3, 0, 0]<br/>class = 0>, fillcolor="#ffffff"] ;
323 -> 324 ;
325 [label=<entropy = 0.0<br/>samples = 1<br/>value = [1, 0, 0, 0]<br/>class = 0>, fillcolor="#e58139"] ;
324 -> 325 ;
326 [label=<x2 &le; 0.072<br/>entropy = 0.971<br/>samples = 5<br/>value = [2, 3, 0, 0]<br/>class = 1>, fillcolor="#c2f6bd"] ;
324 -> 326 ;
327 [label=<entropy = 0.0<br/>samples = 2<br/>value = [0, 2, 0, 0]<br/>class = 1>, fillcolor="#47e539"] ;
326 -> 327 ;
328 [label=<x1 &le; 1.08<br/>entropy = 0.918<br/>samples = 3<br/>value = [2, 1, 0, 0]<br/>class = 0>, fillcolor="#f2c09c"] ;
326 -> 328 ;
329 [label=<entropy = 0.0<br/>samples = 1<br/>value = [0, 1, 0, 0]<br/>class = 1>, fillcolor="#47e539"] ;
328 -> 329 ;
330 [label=<entropy = 0.0<br/>samples = 2<br/>value = [2, 0, 0, 0]<br/>class = 0>, fillcolor="#e58139"] ;
328 -> 330 ;
331 [label=<entropy = 0.0<br/>samples = 9<br/>value = [0, 9, 0, 0]<br/>class = 1>, fillcolor="#47e539"] ;
323 -> 331 ;
332 [label=<entropy = 0.0<br/>samples = 18<br/>value = [0, 18, 0, 0]<br/>class = 1>, fillcolor="#47e539"] ;
310 -> 332 ;
333 [label=<x1 &le; 0.959<br/>entropy = 1.131<br/>samples = 118<br/>value = [42, 4, 0, 72]<br/>class = 3>, fillcolor="#efb1f5"] ;
293 -> 333 ;
334 [label=<x2 &le; 1.098<br/>entropy = 0.406<br/>samples = 74<br/>value = [6, 0, 0, 68]<br/>class = 3>, fillcolor="#db4ae7"] ;
333 -> 334 ;
335 [label=<x1 &le; 0.852<br/>entropy = 0.937<br/>samples = 17<br/>value = [6, 0, 0, 11]<br/>class = 3>, fillcolor="#eda5f3"] ;
334 -> 335 ;
336 [label=<x1 &le; 0.563<br/>entropy = 0.837<br/>samples = 15<br/>value = [4, 0, 0, 11]<br/>class = 3>, fillcolor="#e681ee"] ;
335 -> 336 ;
337 [label=<x1 &le; 0.191<br/>entropy = 0.991<br/>samples = 9<br/>value = [4, 0, 0, 5]<br/>class = 3>, fillcolor="#f7d7fa"] ;
336 -> 337 ;
338 [label=<entropy = 0.0<br/>samples = 4<br/>value = [0, 0, 0, 4]<br/>class = 3>, fillcolor="#d739e5"] ;
337 -> 338 ;
339 [label=<x2 &le; 1.069<br/>entropy = 0.722<br/>samples = 5<br/>value = [4, 0, 0, 1]<br/>class = 0>, fillcolor="#eca06a"] ;
337 -> 339 ;
340 [label=<entropy = 0.0<br/>samples = 4<br/>value = [4, 0, 0, 0]<br/>class = 0>, fillcolor="#e58139"] ;
339 -> 340 ;
341 [label=<entropy = 0.0<br/>samples = 1<br/>value = [0, 0, 0, 1]<br/>class = 3>, fillcolor="#d739e5"] ;
339 -> 341 ;
342 [label=<entropy = 0.0<br/>samples = 6<br/>value = [0, 0, 0, 6]<br/>class = 3>, fillcolor="#d739e5"] ;
336 -> 342 ;
343 [label=<entropy = 0.0<br/>samples = 2<br/>value = [2, 0, 0, 0]<br/>class = 0>, fillcolor="#e58139"] ;
335 -> 343 ;
344 [label=<entropy = 0.0<br/>samples = 57<br/>value = [0, 0, 0, 57]<br/>class = 3>, fillcolor="#d739e5"] ;
334 -> 344 ;
345 [label=<x2 &le; 1.045<br/>entropy = 0.866<br/>samples = 44<br/>value = [36, 4, 0, 4]<br/>class = 0>, fillcolor="#ea9a61"] ;
333 -> 345 ;
346 [label=<x2 &le; 0.985<br/>entropy = 1.0<br/>samples = 8<br/>value = [4, 4, 0, 0]<br/>class = 0>, fillcolor="#ffffff"] ;
345 -> 346 ;
347 [label=<entropy = 0.0<br/>samples = 2<br/>value = [2, 0, 0, 0]<br/>class = 0>, fillcolor="#e58139"] ;
346 -> 347 ;
348 [label=<x2 &le; 1.013<br/>entropy = 0.918<br/>samples = 6<br/>value = [2, 4, 0, 0]<br/>class = 1>, fillcolor="#a3f29c"] ;
346 -> 348 ;
349 [label=<entropy = 0.0<br/>samples = 2<br/>value = [0, 2, 0, 0]<br/>class = 1>, fillcolor="#47e539"] ;
348 -> 349 ;
350 [label=<x2 &le; 1.027<br/>entropy = 1.0<br/>samples = 4<br/>value = [2, 2, 0, 0]<br/>class = 0>, fillcolor="#ffffff"] ;
348 -> 350 ;
351 [label=<entropy = 0.0<br/>samples = 1<br/>value = [1, 0, 0, 0]<br/>class = 0>, fillcolor="#e58139"] ;
350 -> 351 ;
352 [label=<x2 &le; 1.034<br/>entropy = 0.918<br/>samples = 3<br/>value = [1, 2, 0, 0]<br/>class = 1>, fillcolor="#a3f29c"] ;
350 -> 352 ;
353 [label=<entropy = 0.0<br/>samples = 1<br/>value = [0, 1, 0, 0]<br/>class = 1>, fillcolor="#47e539"] ;
352 -> 353 ;
354 [label=<x1 &le; 1.109<br/>entropy = 1.0<br/>samples = 2<br/>value = [1, 1, 0, 0]<br/>class = 0>, fillcolor="#ffffff"] ;
352 -> 354 ;
355 [label=<entropy = 0.0<br/>samples = 1<br/>value = [0, 1, 0, 0]<br/>class = 1>, fillcolor="#47e539"] ;
354 -> 355 ;
356 [label=<entropy = 0.0<br/>samples = 1<br/>value = [1, 0, 0, 0]<br/>class = 0>, fillcolor="#e58139"] ;
354 -> 356 ;
357 [label=<x2 &le; 1.444<br/>entropy = 0.503<br/>samples = 36<br/>value = [32, 0, 0, 4]<br/>class = 0>, fillcolor="#e89152"] ;
345 -> 357 ;
358 [label=<entropy = 0.0<br/>samples = 20<br/>value = [20, 0, 0, 0]<br/>class = 0>, fillcolor="#e58139"] ;
357 -> 358 ;
359 [label=<x1 &le; 1.027<br/>entropy = 0.811<br/>samples = 16<br/>value = [12, 0, 0, 4]<br/>class = 0>, fillcolor="#eeab7b"] ;
357 -> 359 ;
360 [label=<entropy = 0.0<br/>samples = 2<br/>value = [0, 0, 0, 2]<br/>class = 3>, fillcolor="#d739e5"] ;
359 -> 360 ;
361 [label=<x2 &le; 1.468<br/>entropy = 0.592<br/>samples = 14<br/>value = [12, 0, 0, 2]<br/>class = 0>, fillcolor="#e9965a"] ;
359 -> 361 ;
362 [label=<entropy = 0.0<br/>samples = 1<br/>value = [0, 0, 0, 1]<br/>class = 3>, fillcolor="#d739e5"] ;
361 -> 362 ;
363 [label=<x2 &le; 1.777<br/>entropy = 0.391<br/>samples = 13<br/>value = [12, 0, 0, 1]<br/>class = 0>, fillcolor="#e78c49"] ;
361 -> 363 ;
364 [label=<entropy = 0.0<br/>samples = 10<br/>value = [10, 0, 0, 0]<br/>class = 0>, fillcolor="#e58139"] ;
363 -> 364 ;
365 [label=<x2 &le; 1.789<br/>entropy = 0.918<br/>samples = 3<br/>value = [2, 0, 0, 1]<br/>class = 0>, fillcolor="#f2c09c"] ;
363 -> 365 ;
366 [label=<entropy = 0.0<br/>samples = 1<br/>value = [0, 0, 0, 1]<br/>class = 3>, fillcolor="#d739e5"] ;
365 -> 366 ;
367 [label=<entropy = 0.0<br/>samples = 2<br/>value = [2, 0, 0, 0]<br/>class = 0>, fillcolor="#e58139"] ;
365 -> 367 ;
368 [label=<x2 &le; -0.039<br/>entropy = 1.973<br/>samples = 199<br/>value = [36, 46, 60, 57]<br/>class = 2>, fillcolor="#fbfdfe"] ;
2 -> 368 ;
369 [label=<x2 &le; -1.031<br/>entropy = 1.0<br/>samples = 116<br/>value = [0, 0, 59, 57]<br/>class = 2>, fillcolor="#f8fcfe"] ;
368 -> 369 ;
370 [label=<entropy = 0.0<br/>samples = 54<br/>value = [0, 0, 0, 54]<br/>class = 3>, fillcolor="#d739e5"] ;
369 -> 370 ;
371 [label=<x2 &le; -0.8<br/>entropy = 0.28<br/>samples = 62<br/>value = [0, 0, 59, 3]<br/>class = 2>, fillcolor="#43a2e6"] ;
369 -> 371 ;
372 [label=<x1 &le; 1.957<br/>entropy = 0.629<br/>samples = 19<br/>value = [0, 0, 16, 3]<br/>class = 2>, fillcolor="#5eafea"] ;
371 -> 372 ;
373 [label=<x2 &le; -1.017<br/>entropy = 0.337<br/>samples = 16<br/>value = [0, 0, 15, 1]<br/>class = 2>, fillcolor="#46a4e7"] ;
372 -> 373 ;
374 [label=<x2 &le; -1.023<br/>entropy = 1.0<br/>samples = 2<br/>value = [0, 0, 1, 1]<br/>class = 2>, fillcolor="#ffffff"] ;
373 -> 374 ;
375 [label=<entropy = 0.0<br/>samples = 1<br/>value = [0, 0, 1, 0]<br/>class = 2>, fillcolor="#399de5"] ;
374 -> 375 ;
376 [label=<entropy = 0.0<br/>samples = 1<br/>value = [0, 0, 0, 1]<br/>class = 3>, fillcolor="#d739e5"] ;
374 -> 376 ;
377 [label=<entropy = 0.0<br/>samples = 14<br/>value = [0, 0, 14, 0]<br/>class = 2>, fillcolor="#399de5"] ;
373 -> 377 ;
378 [label=<x1 &le; 2.045<br/>entropy = 0.918<br/>samples = 3<br/>value = [0, 0, 1, 2]<br/>class = 3>, fillcolor="#eb9cf2"] ;
372 -> 378 ;
379 [label=<entropy = 0.0<br/>samples = 2<br/>value = [0, 0, 0, 2]<br/>class = 3>, fillcolor="#d739e5"] ;
378 -> 379 ;
380 [label=<entropy = 0.0<br/>samples = 1<br/>value = [0, 0, 1, 0]<br/>class = 2>, fillcolor="#399de5"] ;
378 -> 380 ;
381 [label=<entropy = 0.0<br/>samples = 43<br/>value = [0, 0, 43, 0]<br/>class = 2>, fillcolor="#399de5"] ;
371 -> 381 ;
382 [label=<x2 &le; 0.966<br/>entropy = 1.071<br/>samples = 83<br/>value = [36, 46, 1, 0]<br/>class = 1>, fillcolor="#d8f9d5"] ;
368 -> 382 ;
383 [label=<x2 &le; 0.045<br/>entropy = 0.154<br/>samples = 45<br/>value = [0, 44, 1, 0]<br/>class = 1>, fillcolor="#4be63d"] ;
382 -> 383 ;
384 [label=<x1 &le; 1.673<br/>entropy = 0.918<br/>samples = 3<br/>value = [0, 2, 1, 0]<br/>class = 1>, fillcolor="#a3f29c"] ;
383 -> 384 ;
385 [label=<entropy = 0.0<br/>samples = 1<br/>value = [0, 0, 1, 0]<br/>class = 2>, fillcolor="#399de5"] ;
384 -> 385 ;
386 [label=<entropy = 0.0<br/>samples = 2<br/>value = [0, 2, 0, 0]<br/>class = 1>, fillcolor="#47e539"] ;
384 -> 386 ;
387 [label=<entropy = 0.0<br/>samples = 42<br/>value = [0, 42, 0, 0]<br/>class = 1>, fillcolor="#47e539"] ;
383 -> 387 ;
388 [label=<x2 &le; 1.093<br/>entropy = 0.297<br/>samples = 38<br/>value = [36, 2, 0, 0]<br/>class = 0>, fillcolor="#e68844"] ;
382 -> 388 ;
389 [label=<x2 &le; 1.017<br/>entropy = 0.918<br/>samples = 6<br/>value = [4, 2, 0, 0]<br/>class = 0>, fillcolor="#f2c09c"] ;
388 -> 389 ;
390 [label=<entropy = 0.0<br/>samples = 4<br/>value = [4, 0, 0, 0]<br/>class = 0>, fillcolor="#e58139"] ;
389 -> 390 ;
391 [label=<entropy = 0.0<br/>samples = 2<br/>value = [0, 2, 0, 0]<br/>class = 1>, fillcolor="#47e539"] ;
389 -> 391 ;
392 [label=<entropy = 0.0<br/>samples = 32<br/>value = [32, 0, 0, 0]<br/>class = 0>, fillcolor="#e58139"] ;
388 -> 392 ;
393 [label=<x1 &le; 0.902<br/>entropy = 1.754<br/>samples = 30<br/>value = [14, 3, 9, 4]<br/>class = 0>, fillcolor="#f9e1d0"] ;
1 -> 393 ;
394 [label=<x1 &le; 0.114<br/>entropy = 1.42<br/>samples = 16<br/>value = [0, 3, 9, 4]<br/>class = 2>, fillcolor="#acd6f4"] ;
393 -> 394 ;
395 [label=<x1 &le; -1.037<br/>entropy = 0.811<br/>samples = 12<br/>value = [0, 3, 9, 0]<br/>class = 2>, fillcolor="#7bbeee"] ;
394 -> 395 ;
396 [label=<entropy = 0.0<br/>samples = 3<br/>value = [0, 3, 0, 0]<br/>class = 1>, fillcolor="#47e539"] ;
395 -> 396 ;
397 [label=<entropy = 0.0<br/>samples = 9<br/>value = [0, 0, 9, 0]<br/>class = 2>, fillcolor="#399de5"] ;
395 -> 397 ;
398 [label=<entropy = 0.0<br/>samples = 4<br/>value = [0, 0, 0, 4]<br/>class = 3>, fillcolor="#d739e5"] ;
394 -> 398 ;
399 [label=<entropy = 0.0<br/>samples = 14<br/>value = [14, 0, 0, 0]<br/>class = 0>, fillcolor="#e58139"] ;
393 -> 399 ;
400 [label=<x1 &le; -0.035<br/>entropy = 1.847<br/>samples = 38<br/>value = [4, 10, 8, 16]<br/>class = 3>, fillcolor="#f6d5f9"] ;
0 -> 400 [labeldistance=2.5, labelangle=-45, headlabel="False"] ;
401 [label=<x1 &le; -1.12<br/>entropy = 0.991<br/>samples = 18<br/>value = [0, 10, 8, 0]<br/>class = 1>, fillcolor="#dafad7"] ;
400 -> 401 ;
402 [label=<entropy = 0.0<br/>samples = 9<br/>value = [0, 9, 0, 0]<br/>class = 1>, fillcolor="#47e539"] ;
401 -> 402 ;
403 [label=<x1 &le; -0.939<br/>entropy = 0.503<br/>samples = 9<br/>value = [0, 1, 8, 0]<br/>class = 2>, fillcolor="#52a9e8"] ;
401 -> 403 ;
404 [label=<x1 &le; -0.999<br/>entropy = 1.0<br/>samples = 2<br/>value = [0, 1, 1, 0]<br/>class = 1>, fillcolor="#ffffff"] ;
403 -> 404 ;
405 [label=<entropy = 0.0<br/>samples = 1<br/>value = [0, 0, 1, 0]<br/>class = 2>, fillcolor="#399de5"] ;
404 -> 405 ;
406 [label=<entropy = 0.0<br/>samples = 1<br/>value = [0, 1, 0, 0]<br/>class = 1>, fillcolor="#47e539"] ;
404 -> 406 ;
407 [label=<entropy = 0.0<br/>samples = 7<br/>value = [0, 0, 7, 0]<br/>class = 2>, fillcolor="#399de5"] ;
403 -> 407 ;
408 [label=<x1 &le; 1.113<br/>entropy = 0.722<br/>samples = 20<br/>value = [4, 0, 0, 16]<br/>class = 3>, fillcolor="#e16aec"] ;
400 -> 408 ;
409 [label=<entropy = 0.0<br/>samples = 16<br/>value = [0, 0, 0, 16]<br/>class = 3>, fillcolor="#d739e5"] ;
408 -> 409 ;
410 [label=<entropy = 0.0<br/>samples = 4<br/>value = [4, 0, 0, 0]<br/>class = 0>, fillcolor="#e58139"] ;
408 -> 410 ;
}